Language model created by QuickLM on Wed Feb 27 15:35:04 EST 2019
Copyright (c) 1996-2010 Carnegie Mellon University and Alexander I. Rudnicky

The model is in standard ARPA format, designed by Doug Paul while he was at MITRE.

The code that was used to produce this language model is available in Open Source.
Please visit http://www.speech.cs.cmu.edu/tools/ for more information

The (fixed) discount mass is 0.5. The backoffs are computed using the ratio method.
This model based on a corpus of 19 sentences and 21 words

\data\
ngram 1=21
ngram 2=38
ngram 3=19

\1-grams:
-0.7782 </s> -0.3010
-0.7782 <s> -0.2218
-2.0569 A -0.2218
-2.0569 ALSO -0.2218
-2.0569 BOT -0.2218
-2.0569 CAR -0.2218
-2.0569 COT -0.2218
-2.0569 DRIVE -0.2218
-2.0569 FORGET -0.2218
-2.0569 HERE -0.2218
-2.0569 HOP -0.2218
-2.0569 IS -0.2218
-2.0569 LOOP -0.2218
-2.0569 NOT -0.2218
-2.0569 PASTA -0.2218
-2.0569 REMEMBER -0.2218
-2.0569 ROT -0.2218
-2.0569 TOY -0.2218
-2.0569 VAN -0.2218
-2.0569 WORD -0.2218
-2.0569 YOU -0.2218

\2-grams:
-1.5798 <s> A 0.0000
-1.5798 <s> ALSO 0.0000
-1.5798 <s> BOT 0.0000
-1.5798 <s> CAR 0.0000
-1.5798 <s> COT 0.0000
-1.5798 <s> DRIVE 0.0000
-1.5798 <s> FORGET 0.0000
-1.5798 <s> HERE 0.0000
-1.5798 <s> HOP 0.0000
-1.5798 <s> IS 0.0000
-1.5798 <s> LOOP 0.0000
-1.5798 <s> NOT 0.0000
-1.5798 <s> PASTA 0.0000
-1.5798 <s> REMEMBER 0.0000
-1.5798 <s> ROT 0.0000
-1.5798 <s> TOY 0.0000
-1.5798 <s> VAN 0.0000
-1.5798 <s> WORD 0.0000
-1.5798 <s> YOU 0.0000
-0.3010 A </s> -0.3010
-0.3010 ALSO </s> -0.3010
-0.3010 BOT </s> -0.3010
-0.3010 CAR </s> -0.3010
-0.3010 COT </s> -0.3010
-0.3010 DRIVE </s> -0.3010
-0.3010 FORGET </s> -0.3010
-0.3010 HERE </s> -0.3010
-0.3010 HOP </s> -0.3010
-0.3010 IS </s> -0.3010
-0.3010 LOOP </s> -0.3010
-0.3010 NOT </s> -0.3010
-0.3010 PASTA </s> -0.3010
-0.3010 REMEMBER </s> -0.3010
-0.3010 ROT </s> -0.3010
-0.3010 TOY </s> -0.3010
-0.3010 VAN </s> -0.3010
-0.3010 WORD </s> -0.3010
-0.3010 YOU </s> -0.3010

\3-grams:
-0.3010 <s> A </s>
-0.3010 <s> ALSO </s>
-0.3010 <s> BOT </s>
-0.3010 <s> CAR </s>
-0.3010 <s> COT </s>
-0.3010 <s> DRIVE </s>
-0.3010 <s> FORGET </s>
-0.3010 <s> HERE </s>
-0.3010 <s> HOP </s>
-0.3010 <s> IS </s>
-0.3010 <s> LOOP </s>
-0.3010 <s> NOT </s>
-0.3010 <s> PASTA </s>
-0.3010 <s> REMEMBER </s>
-0.3010 <s> ROT </s>
-0.3010 <s> TOY </s>
-0.3010 <s> VAN </s>
-0.3010 <s> WORD </s>
-0.3010 <s> YOU </s>

\end\
